{
  "levels": [
    {
      "inputs": [
        0,
        0.2883228802263602,
        0.46734714484082374,
        1,
        0,
        0,
        0,
        -1,
        -1
      ],
      "outputs": [
        1,
        1,
        0,
        0,
        1,
        1,
        0,
        1,
        1,
        1,
        1,
        0,
        1,
        0,
        0,
        1
      ],
      "weights": [
        [
          0.5165429185914621,
          0.30828341749735005,
          -0.35805903765454966,
          0.30543115022534745,
          0.08988373161357954,
          -0.36988790162531326,
          0.7848183548970239,
          0.6154348033854715,
          -0.34204252236148713,
          -0.4649723725950975,
          -0.7409288783411052,
          0.25683025021583944,
          -0.8872339868175394,
          -0.7223541333513128,
          -0.6457980940843678,
          0.6312659260162867
        ],
        [
          -0.06034457718837948,
          0.4047435726232907,
          -0.6907778958335753,
          -0.1279626622928844,
          -0.25135382028692327,
          -0.7064578983602083,
          0.7253120525582396,
          0.08508719578481821,
          -0.14674132433119455,
          -0.1772257048543041,
          -0.04655299731542315,
          0.4045812981678498,
          0.05901412519804648,
          -0.5773754264602564,
          0.4933210668674014,
          -0.7671512154612861
        ],
        [
          0.0367728575836518,
          0.7243877154218701,
          0.7994099909617732,
          0.18542133711260536,
          -0.6254777767719444,
          0.010827926122555431,
          0.6421719388680338,
          0.7524247156156224,
          0.4194911504176004,
          0.8002302224361283,
          0.06549317755812677,
          0.4531128627452101,
          0.4765730836882821,
          0.2617212301968033,
          -0.6403853328227945,
          -0.6452298243982024
        ],
        [
          -0.08011923257446035,
          -0.21688158178520647,
          -0.6264166497046529,
          -0.6173756810562292,
          0.3526128927266683,
          -0.11291858516943726,
          -0.207225565578396,
          0.15368868499135346,
          0.20699507863773806,
          0.2936786570975451,
          0.32362754410111233,
          0.11959409903605195,
          0.34700100509183085,
          -0.6295935376572437,
          -0.460107081219569,
          0.17093081341445132
        ],
        [
          -0.08257380745147129,
          -0.6451923513964206,
          -0.09681683787291451,
          0.05402270055414678,
          -0.4448151539150944,
          0.6196392540440274,
          0.7668000880125654,
          -0.13681047660075574,
          -0.026302534949264572,
          -0.6732300035638928,
          -0.5415342014436538,
          -0.09988910974778432,
          -0.6078161358591049,
          -0.14969800198314198,
          0.145571292090737,
          0.4997838452502257
        ],
        [
          -0.09176412496259152,
          0.5326195295621347,
          -0.6737831096468433,
          0.4789454673379767,
          0.09668604900213067,
          0.5499507620686358,
          -0.6145914071207272,
          -0.2092129976263517,
          0.30600035330771186,
          0.1471593610790467,
          0.46694967329562187,
          -0.5042825433353599,
          -0.052131438692674927,
          -0.1226334586970003,
          -0.5780634266337673,
          -0.17988009058532395
        ],
        [
          -0.6437304978398605,
          0.8317998880015705,
          -0.2750638801288558,
          -0.5579000063773316,
          0.34350972701614124,
          0.7231764908682402,
          -0.46913519205297,
          -0.7087564830378656,
          -0.043959495672441104,
          -0.6174813563302839,
          0.7662787473607514,
          -0.1482635247305648,
          -0.6717909528876361,
          -0.046407106926855235,
          -0.8360802923651992,
          0.04972365595185987
        ],
        [
          -0.5338562754614408,
          -0.7856211937308748,
          0.45335863066282533,
          0.3825152113284715,
          -0.33278435057890426,
          -0.8119601186833264,
          0.7219752492651976,
          -0.4467465770058053,
          -0.20571254948436107,
          -0.7596817703289064,
          0.4218585467075846,
          0.4014033660400366,
          0.5718319913408711,
          -0.5059786557491365,
          0.1703739484199749,
          -0.21216272327915175
        ],
        [
          -0.5109674025166506,
          -0.5432209569556065,
          0.17511701826697146,
          0.18911044032029434,
          -0.281071378584609,
          0.34494479707703296,
          -0.39760611782101546,
          -0.06981170473319391,
          -0.3367127579594289,
          0.011403382580549789,
          0.03111798976941968,
          -0.05318543072605813,
          -0.41129972805723153,
          -0.2760387340364079,
          -0.5364125391958434,
          -0.6378865189204364
        ]
      ],
      "biases": [
        0.18871742444579975,
        -0.5339417121873324,
        0.3097114402785218,
        0.6236271147204253,
        -0.4915918141113802,
        -0.37517668863566744,
        0.4745056994839744,
        0.5854039937904898,
        -0.19450270755386778,
        -0.2964717862551551,
        -0.45786814633658446,
        0.4924580429947577,
        -0.08199513541716522,
        0.71893978674143,
        0.3900149529955358,
        -0.08367308790322632
      ]
    },
    {
      "inputs": [
        1,
        1,
        0,
        0,
        1,
        1,
        0,
        1,
        1,
        1,
        1,
        0,
        1,
        0,
        0,
        1
      ],
      "outputs": [
        0,
        0,
        1,
        0,
        1,
        0,
        1,
        0
      ],
      "weights": [
        [
          -0.4141335601342273,
          -0.18427668480219497,
          0.316324416999022,
          -0.8416933044062477,
          -0.5200856595365698,
          -0.36996869254261666,
          0.4414182615576047,
          -0.7740367871137898
        ],
        [
          0.8324109461131798,
          -0.7571609840149144,
          0.6655434254088733,
          0.0141094596335847,
          0.7515210530189025,
          -0.031822753329268594,
          -0.32156556912104894,
          0.6569726427361373
        ],
        [
          0.6410619478330084,
          -0.17070155260512387,
          0.21760475696174825,
          0.03458406974892381,
          0.008817604936047357,
          -0.02365379144472307,
          0.6175701168498807,
          -0.5429818037470835
        ],
        [
          -0.4967570001510329,
          -0.48008525647176037,
          0.15659728895887703,
          0.1864390513089163,
          0.7668362571225212,
          -0.378398540969589,
          0.3743425412529767,
          0.23830987353830516
        ],
        [
          0.0669930204564404,
          -0.23876369508264533,
          0.6494521393539465,
          -0.5616142585200985,
          0.47721673945712745,
          -0.06887857408074119,
          0.5873360582056412,
          -0.19326195393819795
        ],
        [
          -0.6577941166143307,
          -0.2686415212125193,
          -0.26652017278870405,
          -0.4122973519065845,
          0.16527894306066152,
          -0.12429540542976483,
          -0.36203937328545616,
          -0.52258979533856
        ],
        [
          -0.19047675739942782,
          0.5116779709279083,
          -0.4590196396996909,
          0.3362884279511315,
          -0.552463750403188,
          0.04096603728165135,
          -0.49471738324951703,
          0.24630791746194658
        ],
        [
          0.4651100025929173,
          -0.6452851896885308,
          0.6778976287528751,
          0.10666015257430016,
          0.17095719578010382,
          -0.6305800373787658,
          0.0032789853025073402,
          0.05689413927558816
        ],
        [
          -0.31553201290044913,
          0.17372457615689657,
          0.38559555233712184,
          0.4638703582740098,
          0.186732457454784,
          -0.2993263786168216,
          -0.20629869476709678,
          0.44232439887698305
        ],
        [
          -0.5710047166102854,
          -0.37903657115731965,
          0.9125811676391249,
          0.29217856057172137,
          0.4059242021841853,
          0.7256437205264542,
          -0.3228383943535295,
          -0.6271375962248433
        ],
        [
          -0.613031213219558,
          -0.5555826976884344,
          -0.06811279250204666,
          0.4960581759928002,
          0.021755153014433384,
          -0.6692536722231239,
          -0.09097708976889596,
          -0.0177246027444724
        ],
        [
          -0.5057871719792756,
          -0.4579424715849773,
          0.8849182991083495,
          -0.6333532661988445,
          -0.5957466943950683,
          0.6359895752572423,
          0.2929527570324813,
          0.012388641420834103
        ],
        [
          0.6006615658736721,
          -0.6487566094985092,
          -0.4060946614809805,
          0.16837475756862563,
          -0.21881664359678188,
          0.21631673810329233,
          0.12115775882711183,
          -0.7394795721852722
        ],
        [
          -0.5758424002476389,
          -0.48534447862112295,
          0.8079873552402308,
          0.05809523224528599,
          0.6067530530995706,
          0.7266670504351808,
          -0.14709746585428723,
          0.3212161791989299
        ],
        [
          0.5883508734802749,
          0.03515493484301356,
          0.6756870256240832,
          -0.4333801024503684,
          0.13159768155671928,
          0.35511286372303974,
          -0.25750951182056114,
          -0.5760915298070518
        ],
        [
          0.41067717807716597,
          -0.4358202694704285,
          -0.2445833822412186,
          -0.6563470445813462,
          -0.008518542735304703,
          -0.15801076397572686,
          0.012759214034639643,
          -0.36457638377948004
        ]
      ],
      "biases": [
        0.26566119787516795,
        0.4975943380350053,
        -0.30665921354584635,
        0.16049712993382323,
        -0.27319541950324666,
        -0.07924454369438834,
        -0.21667445864359572,
        -0.7385849615570746
      ]
    },
    {
      "inputs": [
        0,
        0,
        1,
        0,
        1,
        0,
        1,
        0
      ],
      "outputs": [
        1,
        0,
        0,
        0
      ],
      "weights": [
        [
          0.2623220157184553,
          -0.35770162653549165,
          0.3832386331206372,
          -0.020204393432622605
        ],
        [
          -0.8488157566046182,
          -0.46581509352718425,
          0.29311778279427764,
          -0.21645012472137332
        ],
        [
          0.40099997176819685,
          -0.16621140208801966,
          0.3044386529406884,
          -0.5302814465593374
        ],
        [
          0.0012544920751857078,
          -0.2620700512333318,
          -0.1075286604391216,
          0.5556356554956496
        ],
        [
          0.6061210864703933,
          -0.6853994628643868,
          0.45509937604263995,
          -0.5549148895654417
        ],
        [
          -0.36314128138434754,
          0.40662073080355876,
          -0.16729744378585684,
          0.2883696427367295
        ],
        [
          0.6953420889055664,
          0.10299833676766448,
          -0.6649590672300879,
          -0.49306269011854065
        ],
        [
          0.6932705946795628,
          0.4247350748172791,
          0.6028847252113125,
          -0.7097838267855346
        ]
      ],
      "biases": [
        0.28725337613672247,
        -0.16365446800660818,
        0.670577185346925,
        0.13699990834957113
      ]
    }
  ]
}