{
  "levels": [
    {
      "inputs": [
        0,
        0,
        0.2251884309032346,
        1,
        0,
        0,
        1,
        0,
        0
      ],
      "outputs": [
        0,
        1,
        0,
        1,
        1,
        1,
        0,
        0,
        0,
        0,
        1,
        0,
        0,
        0,
        1,
        1
      ],
      "weights": [
        [
          -0.21974970987240997,
          0.6964002492761452,
          -0.4528441370014342,
          0.189968313777196,
          0.5779053441437922,
          0.5645609654782657,
          0.4147914603695608,
          -0.654461320916101,
          0.780139518511027,
          -0.026354234981031642,
          -0.6102399278480183,
          0.6445056408299544,
          -0.6045681607006098,
          0.5411242515592705,
          0.1487931834368708,
          -0.1808671859838221
        ],
        [
          0.02844330504051365,
          -0.09725012692299187,
          -0.025486177908457572,
          0.2703990003058438,
          -0.48893293813749816,
          0.028574902218626075,
          0.20046436386052713,
          -0.480928748509363,
          0.5648030696290661,
          -0.03893910364485083,
          0.47030579014890916,
          -0.36431692378748676,
          -0.0021029930096818916,
          -0.3788386903854614,
          0.6078314236790573,
          0.5277406169858262
        ],
        [
          0.01858230969688139,
          0.6337879445889983,
          -0.24740095363938963,
          0.5068549086347738,
          -0.35774636393465187,
          -0.20047690927936646,
          -0.3482097688706407,
          0.22776340803786937,
          0.3951392246430421,
          -0.37642109058584916,
          -0.25457766276753724,
          -0.20602494520413805,
          0.25950123628323796,
          -0.5033259895821224,
          0.02491159192477424,
          -0.6470401398065666
        ],
        [
          -0.6693826218948123,
          0.2913596093205474,
          0.29433720119807527,
          -0.3921810918600268,
          0.16515555380182956,
          0.49318837807574584,
          -0.2806805562931568,
          -0.4121507831561999,
          0.13144581518584797,
          -0.5363450994356278,
          0.03553213944670954,
          0.38553362085972864,
          0.1421794674995176,
          0.21034666474106412,
          0.4901764326403603,
          -0.14541261236595268
        ],
        [
          -0.2461443453735192,
          -0.29518841844622706,
          -0.3733347052739331,
          -0.031113255312755626,
          -0.17894208762813502,
          0.5766408141112898,
          0.03751659667954863,
          0.5982281665047438,
          -0.3830394885326769,
          -0.7310536264148695,
          -0.6309115078870151,
          0.4042838337566083,
          0.3915206350859574,
          -0.6235858208506295,
          0.2190721549551617,
          -0.3234235856816352
        ],
        [
          0.7525826703002123,
          -0.16038956422283335,
          -0.3154520341774855,
          0.06627547492947525,
          0.04958520941935535,
          0.05060885102706906,
          -0.3265209647461515,
          0.5133162906771606,
          0.347821867793221,
          0.4752219128820586,
          -0.07374184565040662,
          -0.4325866968773288,
          0.17974041880972563,
          0.44898998234438076,
          0.65067137096128,
          0.2200428575854385
        ],
        [
          0.00022250483707485919,
          0.49594663119465954,
          0.12328014409026021,
          0.24525940656811657,
          0.08527979356958365,
          0.14731926830225014,
          0.20405071019830512,
          -0.5014953372156763,
          -0.6541807948513884,
          0.439597105451469,
          0.6142795137065838,
          -0.05604379704564569,
          -0.3347562407856752,
          -0.6097288617640079,
          0.5651114689373401,
          0.38301627369614366
        ],
        [
          -0.6610378678041058,
          0.08262148664969114,
          -0.6332173645913345,
          0.35653718693550007,
          -0.5362820571600458,
          0.469702377100155,
          0.23874041325377027,
          -0.032428832891838136,
          -0.34625469748099535,
          0.25346700177086584,
          0.1897697581719526,
          0.3841851229915666,
          0.5831881927025075,
          0.7489538377598628,
          -0.7199349355263982,
          0.5204536173930399
        ],
        [
          0.10190210716230959,
          0.17310575201882328,
          0.3581786458120861,
          0.28099605858306004,
          -0.2996803634447195,
          0.3403370399778628,
          0.26717563504036246,
          -0.12837909250958,
          0.31417819043204026,
          0.1824425110752204,
          0.46634455721458706,
          0.162585397033277,
          -0.6620953441938333,
          -0.5987707914756093,
          -0.609090324299686,
          0.5242939228990235
        ]
      ],
      "biases": [
        0.5555237679866809,
        0.155301798407656,
        0.5904543332438381,
        -0.43002707554965447,
        -0.22956786155060743,
        0.2005258922153993,
        0.10404588675349438,
        0.1849277750646701,
        0.46286485989323456,
        0.3848347680974588,
        0.3278092936513475,
        0.45690451341221183,
        0.6476033636363181,
        0.25117349775001363,
        -0.2874725106854529,
        -0.24202870840412394
      ]
    },
    {
      "inputs": [
        0,
        1,
        0,
        1,
        1,
        1,
        0,
        0,
        0,
        0,
        1,
        0,
        0,
        0,
        1,
        1
      ],
      "outputs": [
        1,
        0,
        0,
        0,
        0,
        1,
        1,
        1
      ],
      "weights": [
        [
          -0.20558701458517842,
          -0.6707074100842679,
          -0.19308167419501107,
          0.3506308924020568,
          0.19486820305183453,
          0.38751871092615736,
          0.48398082875764403,
          -0.6090331485019239
        ],
        [
          0.1695509741709656,
          -0.31075994328018863,
          -0.7856536363202693,
          0.4947084911268114,
          0.3895528492383245,
          -0.49793784011329745,
          -0.005666436253107634,
          0.5134301734144684
        ],
        [
          0.6306981180980774,
          0.07405851813413473,
          0.2924661402512385,
          -0.14854092031496186,
          0.36331664499241045,
          -0.15282759484341008,
          0.3922993308503256,
          0.52693096482028
        ],
        [
          0.5237084726209291,
          -0.1374610589612,
          0.3047984950724185,
          -0.3086251309192407,
          -0.11484562097933392,
          0.26220821388766014,
          -0.36814757584048113,
          0.5326363290492168
        ],
        [
          0.5438081659218781,
          0.39865251882073066,
          0.10105372159730497,
          -0.14766844919972233,
          0.010657654782329357,
          -0.2854917381035949,
          0.5124742777924887,
          -0.0044671880668005065
        ],
        [
          0.024306215728190528,
          -0.8037974123398677,
          -0.053422322450740994,
          -0.1656140020567577,
          -0.15465954441356852,
          0.28389778341285654,
          0.4149867028870783,
          0.44292526307586955
        ],
        [
          -0.7160973966980535,
          0.2872085120582119,
          0.441064350195983,
          -0.13365940391358705,
          0.25312212213608815,
          -0.767357474066667,
          0.5865348588361248,
          -0.5151911756312895
        ],
        [
          -0.514317722405326,
          -0.380357871962657,
          -0.26789384441324776,
          0.20887494213352878,
          -0.6014396115847825,
          0.08499866416128976,
          0.30129052730663686,
          -0.5690960055357044
        ],
        [
          -0.5135071904151998,
          0.025293844744373156,
          -0.6961106213598818,
          0.28399232205532077,
          -0.4946954773756497,
          -0.2088633639594347,
          -0.6139470795818461,
          -0.31695849893403366
        ],
        [
          -0.10519071227506262,
          0.11280186177844659,
          0.11276481094111562,
          0.053983380374836895,
          0.3600777233592447,
          0.5412003114944788,
          -0.20450070454846728,
          0.5321887019662443
        ],
        [
          -0.45455891451639774,
          0.4510163266495522,
          0.12290751134263495,
          0.47534470376243654,
          -0.005598695237368841,
          0.6771767041161502,
          -0.36015562460944095,
          -0.22671043030076404
        ],
        [
          0.6116540187094086,
          -0.66975891900137,
          -0.5194690782370719,
          -0.4093677106936405,
          -0.3926761214086091,
          0.20588413079252005,
          0.33680688417936433,
          0.2850728110389015
        ],
        [
          -0.363477351328136,
          -0.606971769354915,
          0.38782852054107253,
          -0.5174076747583104,
          0.045595277903095074,
          -0.08249251918265808,
          -0.5586918565407434,
          -0.5352296612312406
        ],
        [
          0.49058383997515986,
          0.7168432543664494,
          0.04079012115050086,
          -0.4750625994987799,
          -0.6278842398542018,
          0.4858141499781635,
          -0.026579818310362893,
          0.6060532347360336
        ],
        [
          0.2171891039454344,
          -0.12956383936536411,
          -0.48408663278693526,
          -0.1999635046202021,
          -0.35047819681231596,
          -0.10995498255816523,
          0.37492240867808707,
          0.5294353699729963
        ],
        [
          -0.31685287557979097,
          0.703737690836958,
          0.37830741260864126,
          -0.1317286482935272,
          -0.30612865158329783,
          -0.09695045766811652,
          0.4723704204287033,
          0.6032232597475635
        ]
      ],
      "biases": [
        -0.6194215542226241,
        0.38452179150683735,
        -0.24935373166100205,
        0.15846696998709464,
        0.011120594883985327,
        0.1325736190735076,
        -0.38046306314992717,
        -0.2807655585104249
      ]
    },
    {
      "inputs": [
        1,
        0,
        0,
        0,
        0,
        1,
        1,
        1
      ],
      "outputs": [
        1,
        0,
        0,
        0
      ],
      "weights": [
        [
          0.15474258194765156,
          -0.010441649372268713,
          -0.6222466260214959,
          -0.391126959480722
        ],
        [
          -0.22977787305560887,
          0.6338598882507547,
          0.6532115699668856,
          -0.16121752653704963
        ],
        [
          0.07530426184151351,
          0.0788021008463899,
          -0.42004319714694566,
          0.09401532131408376
        ],
        [
          -0.038039510898551065,
          0.8461386950413026,
          -0.4632433946262308,
          -0.30271495622185507
        ],
        [
          -0.6394832652791429,
          0.12159933434843598,
          -0.23124833810064052,
          0.661192711223139
        ],
        [
          -0.2485603310332838,
          -0.07386370343962809,
          -0.11269961149068124,
          0.5806125038356804
        ],
        [
          -0.6786339387291753,
          -0.05027623704414919,
          0.1797244931077348,
          0.08563581415540333
        ],
        [
          0.5626919037637959,
          -0.20101467992959643,
          -0.15836297265109361,
          -0.09652411224079055
        ]
      ],
      "biases": [
        -0.5526721855767825,
        0.33797788511928295,
        -0.4537498052022209,
        0.3767561816255351
      ]
    }
  ]
}