[
  {
    "inputs": [0, 0, 0, 1, 1, 1, 0],
    "outputs": [0, 1, 0, 0, 0, 1, 0, 0, 0, 0, 0, 1, 0, 0, 0, 1],
    "weights": [
      [
        -0.2068256351803369, 0.15012346782465466, -0.30479931646701924,
        -0.4592991029631539, 0.06812851530580188, -0.24433306495939866,
        0.44505716983502797, -0.0011133048247814054, -0.1939143451361564,
        -0.43374217759879835, 0.5552347076904383, -0.03872579026716876,
        0.19686695198631854, 0.14667899830548764, -0.1685560758105456,
        0.21461470192999427
      ],
      [
        -0.3419362319713388, 0.5346510074022981, -0.3340816347543393,
        0.49129173907829143, 0.409751630284462, -0.3293649037794422,
        0.32011468312787317, 0.480238999388277, -0.013884894773817366,
        0.41758075419322593, -0.3155107295598299, 0.46022129285535496,
        0.4769323212635404, -0.06784741859627269, 0.31727491280421144,
        -0.3247640241205944
      ],
      [
        -0.44648000145182615, 0.24883751732963655, 0.21653470128710273,
        -0.22738495152052934, -0.42627757100978014, 0.1244288233873738,
        -0.49417056937210846, 0.2807005226334139, -0.19362884970154506,
        -0.14467942500000158, -0.4459910180531728, -0.017888176061657837,
        0.2931289162644089, 0.4862195240674837, -0.3373557143199868,
        0.06830654748127253
      ],
      [
        -0.669674036236454, -0.35491167282866914, -0.041219397680900306,
        0.6843773942154884, -0.3836206874450126, -0.09507714762480064,
        -0.4846826299610649, -0.24616377536400108, -0.10496679058344971,
        -0.6887425804465319, 0.01588743456701973, -0.05536983978273505,
        -0.515022034760534, -0.3745808526992561, 0.10376895234347794,
        0.15337290499325312
      ],
      [
        -0.2895961832154096, -0.16120533902235748, -0.593882335287176,
        -0.26368256466893836, -0.2550946242440658, -0.1897867122070468,
        -0.01535670434098285, -0.5439157391827922, -0.5308951580452488,
        0.21239186743855099, -0.11414772311534, 0.2930652630480646,
        -0.06246062634427836, 0.04883502574596453, -0.149017291357338,
        -0.09226745775105877
      ],
      [
        0.3355406289176526, 0.10915164947633102, -0.2655476689471285,
        -0.5150634127919881, -0.22397637663992853, 0.4286025828337312,
        -0.5725513719507227, -0.11087946957724326, 0.034238528306151386,
        -0.5496478198757999, -0.20544663826980228, 0.5441925527030053,
        -0.5318191061573183, -0.15059558763859363, 0.30667814812653327,
        -0.019890040932508464
      ],
      [
        -0.4340450229971076, 0.28906352912037636, -0.6323143857461322,
        -0.25406169526080385, 0.3992391894251359, 0.26267906802080143,
        -0.44420466898060007, -0.2546062772048643, 0.582584671764268,
        0.4620938493678851, -0.07969525787875116, -0.3331684722986757,
        -0.15532353741239405, 0.1950744262108145, -0.27384844061861097,
        0.16352146203482132
      ]
    ],
    "biases": [
      0.31164601782205015, -0.49151307953977885, 0.39405215183598025,
      -0.01691451845685149, -0.2975331964194518, 0.12827591874045194,
      0.1325844417254249, 0.2754797645253192, 0.038263379774282166,
      -0.22570775314443906, -0.09184313282018848, 0.03997734870383278,
      0.3831747039678238, -0.2383080183002501, 0.3860848194148358,
      -0.1585519059875251
    ]
  },
  {
    "inputs": [0, 1, 0, 0, 0, 1, 0, 0, 0, 0, 0, 1, 0, 0, 0, 1],
    "outputs": [0, 1, 1, 0, 1, 0, 1, 0],
    "weights": [
      [
        0.5523947725993568, 0.5575595016867486, 0.5393278443113958,
        0.6571962216072165, -0.13972244117944002, 0.030706224711063282,
        -0.6861028063188241, -0.0578222802492538
      ],
      [
        -0.0828686825863509, 0.22492612337431123, -0.050017715080630264,
        -0.4902847039729124, -0.5345430451422617, -0.6033853480033665,
        0.49641854765692994, -0.39966369559577675
      ],
      [
        -0.24713404472227027, 0.12631770205950288, -0.5693679931596078,
        0.4800173795757439, -0.07847298755863198, 0.017812559263851117,
        0.06893130864563907, 0.0010119909523605697
      ],
      [
        -0.24354112530411076, -0.479347344330214, -0.40257883517734266,
        -0.4571211274540016, -0.2017804611167669, 0.4948009351945215,
        -0.12956932349407602, 0.14218954020410046
      ],
      [
        -0.48044436040044103, 0.032999469364646754, -0.6028217971360034,
        -0.2956003525789155, -0.5305324721381066, 0.3128522522447532,
        0.4249251426078183, -0.21190615226138482
      ],
      [
        -0.3725614412705052, -0.16527644901032407, 0.4772246634440251,
        -0.5732082788314454, 0.5232473722449529, -0.7067682090852788,
        0.35051625852273904, 0.6757737781472675
      ],
      [
        -0.01466255821866648, 0.032902226733515935, 0.23849527868829687,
        -0.13413992070975483, -0.09557928759840374, -0.5394747679713727,
        0.24049349725603664, 0.1533176684600605
      ],
      [
        -0.009388581459667394, -0.0023997013000339497, 0.3539845407342715,
        0.6353143871383362, 0.05799164283384654, -0.0692894673694733,
        -0.46490260807787165, 0.4575772777467698
      ],
      [
        -0.09511230664172657, 0.24231118807862143, -0.5650595694277957,
        -0.39301121864394645, 0.22335361923678027, 0.03228790922510222,
        0.42936009010721815, -0.4496238165701558
      ],
      [
        -0.14564260681094587, -0.3405343062144866, -0.3786765255464534,
        0.5207048907030045, -0.2865080504034836, 0.011810078910455143,
        0.24437918221985488, -0.13333204140986166
      ],
      [
        0.6443811604918092, 0.6964695719498261, 0.09234864834116456,
        0.3978411865767599, -0.5446774307631795, 0.5236870869950554,
        -0.5904270624390996, -0.00766826298139682
      ],
      [
        -0.20979127348064683, 0.11116948931970372, 0.2575564422146054,
        -0.03954170118401591, 0.6058607949572673, 0.7274691543625101,
        -0.15584815539747132, -0.21249880249016007
      ],
      [
        -0.13910325166443996, -0.23365885451241436, 0.27826211011947755,
        -0.04803291192660747, -0.2143395340529737, -0.4641612325191541,
        -0.1383146776526604, -0.4922339483554604
      ],
      [
        0.22926125409365128, -0.0937272144518366, -0.19845024798431857,
        -0.36160063415135546, -0.3242546291616629, -0.03590463363732515,
        -0.2654298850013601, -0.56941458635867
      ],
      [
        0.468447969381299, -0.26303737445538866, -0.06549605401278587,
        -0.42931013016835823, -0.4082177856951206, 0.25987963643384954,
        -0.15436295192240385, 0.06261612098550311
      ],
      [
        -0.18635365567257273, 0.18913551579828491, 0.0020341502270718216,
        0.4200169946496686, -0.42300212328818754, -0.06779168972358296,
        0.36047204131499877, -0.7007649607121783
      ]
    ],
    "biases": [
      -0.44905629342539255, 0.019922863866889032, -0.4012668472125859,
      0.655863418262519, -0.5781481081997509, -0.6152132752768945,
      0.6202335982603616, 0.42945941342970806
    ]
  },
  {
    "inputs": [0, 1, 1, 0, 1, 0, 1, 0],
    "outputs": [1, 0, 1, 1],
    "weights": [
      [
        -0.2371374094475729, -0.29590894095256126, -0.06614007339674488,
        -0.3022985438788086
      ],
      [
        0.24722454463970328, 0.2078048157925026, 0.2833219621199117,
        -0.3797215741383121
      ],
      [
        -0.12856351955567288, -0.15199222160768583, -0.045715438031440514,
        0.5492592255451391
      ],
      [
        0.33303771357076306, 0.5419165851746871, 0.02045425229996317,
        -0.25736506192627917
      ],
      [
        0.15754745967226408, -0.282115931442327, -0.07411380524260303,
        0.34951647371261746
      ],
      [
        0.008905128542501126, 0.44324900648357285, -0.7149777416481291,
        -0.3881322578863576
      ],
      [
        0.2732445493818336, -0.059450042396406416, 0.4827206572022228,
        -0.5155602149381784
      ],
      [
        0.06193164907269305, 0.576230234586961, -0.006098130579995885,
        0.6914204042017964
      ]
    ],
    "biases": [
      0.3199932837536541, -0.10382489476074157, -0.07358259534876291,
      -0.05716472353217733
    ]
  }
]
