{
  "levels": [
    {
      "inputs": [
        0,
        0,
        0.5654234213816806,
        1,
        0,
        1,
        0,
        -1,
        -1
      ],
      "outputs": [
        1,
        0,
        0,
        1,
        0,
        0,
        0,
        0,
        0,
        1,
        1,
        1,
        1,
        1,
        0,
        0
      ],
      "weights": [
        [
          -0.9077230714649192,
          0.412917095089267,
          -0.2691517881337504,
          0.2990087751315676,
          0.2316135211937696,
          0.10022796104871276,
          0.7088171710188148,
          -0.3031150357686437,
          0.18273088578066454,
          -0.20001667029789633,
          -0.15420647515086003,
          -0.8820569306799627,
          0.07734317063321507,
          -0.5906593448650124,
          0.32856041216600473,
          0.30436302562187734
        ],
        [
          0.7382662590599256,
          0.28977609529643494,
          -0.3982903068762077,
          -0.8110835422648806,
          -0.7907173242725011,
          0.08642028571254237,
          -0.6350479912456238,
          0.2471460819120714,
          0.7780943567187797,
          0.2927094009958734,
          -0.04192839714159488,
          -0.4074083914041545,
          -0.7722893019815934,
          0.6219221640414616,
          0.6467807233803412,
          -0.29592262133771685
        ],
        [
          0.5659338433549667,
          0.4306267216485503,
          -0.4410416569184764,
          -0.023638170581315406,
          -0.4394983244429806,
          -0.0645437894242594,
          0.726250945983452,
          -0.4713325471400214,
          0.3819869512351192,
          0.9027034527258498,
          -0.6142165042906204,
          0.31219700164832354,
          -0.5824052536346371,
          -0.7395940882423109,
          0.011861761551892627,
          0.19312159442903173
        ],
        [
          0.4727956925698035,
          -0.45319420304469754,
          0.1947210518315609,
          0.05388551302334477,
          0.43734898021669627,
          -0.6504830491984704,
          -0.8570393849037004,
          0.5566353712058951,
          -0.35565384864142063,
          -0.24581908229239063,
          0.031269257203425105,
          0.21690193974559652,
          0.6821437200031636,
          0.5724637628533678,
          -0.46115094225328274,
          -0.5679671433988973
        ],
        [
          0.37246802916500915,
          0.7789612690352241,
          0.5914293262577038,
          -0.6464911437479693,
          -0.8255986302307757,
          -0.8342863926936861,
          -0.6719500162010874,
          0.6522637953106585,
          -0.5907825857611455,
          -0.9343012869812264,
          -0.19850867900738206,
          -0.5874325966083584,
          0.7960317210928511,
          0.5224111703236419,
          -0.33668008490254886,
          -0.017086131139969866
        ],
        [
          0.46556476255877693,
          -0.9567072374544614,
          -0.5218863106447951,
          0.6724999382895548,
          0.021292254608183125,
          0.40655777917711594,
          0.136898166161031,
          -0.21545244870382213,
          0.31820363016387043,
          -0.47866422920268586,
          0.7081060091249824,
          0.5434423208852407,
          -0.31714344918359527,
          0.1319580773211354,
          0.3238392425515983,
          0.3577051837769811
        ],
        [
          0.9596649545523733,
          0.5576883797727296,
          -0.3434754828565794,
          0.35798488851995247,
          -0.5901258689539601,
          -0.19150237028732636,
          -0.34326833427654785,
          0.050603304812185584,
          -0.9170530421460819,
          0.7904482011615621,
          -0.015219557860416802,
          -0.08025442327904339,
          0.7481444295254915,
          0.581243372972239,
          -0.6876790708702915,
          0.8708060426495641
        ],
        [
          0.28758931587387987,
          0.9101010925592835,
          -0.08855930698289927,
          -0.16250350608497968,
          0.14449169828831152,
          0.047447476390952814,
          -0.5224478044116738,
          -0.44626816061675495,
          -0.15625943127781114,
          -0.8059559476940715,
          0.7760404459496094,
          -0.669423411142684,
          -0.6183638491251163,
          -0.5673471557199995,
          0.5036542391900622,
          0.6375968009177235
        ],
        [
          0.29706004876640524,
          0.03478716883511315,
          0.5474832022322789,
          0.3797098284830326,
          0.6765460974313476,
          0.04655611661376098,
          -0.12183193123257077,
          0.14632990879766888,
          0.8147873069729038,
          -0.22059997560837438,
          -0.6979719686453801,
          -0.24061628115783346,
          -0.17658753815978506,
          -0.06305821041849444,
          0.5452473658471861,
          -0.3146919265842937
        ]
      ],
      "biases": [
        -0.04450155149819446,
        -0.8245948534628106,
        0.1554537009751586,
        0.20204119212016827,
        -0.08129926394523859,
        -0.13819360476780404,
        0.3947716349856808,
        0.7243437888229451,
        -0.08400831336524736,
        -0.8244447095025266,
        -0.08848361056417939,
        -0.5747571276367642,
        -0.678895668364466,
        -0.5129823078320991,
        0.3407559640151242,
        0.9245714786574797
      ]
    },
    {
      "inputs": [
        1,
        0,
        0,
        1,
        0,
        0,
        0,
        0,
        0,
        1,
        1,
        1,
        1,
        1,
        0,
        0
      ],
      "outputs": [
        0,
        1,
        0,
        1,
        0,
        1,
        0,
        1
      ],
      "weights": [
        [
          -0.5715242650751594,
          0.2132869998681311,
          -0.1463959611384415,
          -0.7426979630854982,
          0.457607141436711,
          0.5553524555985888,
          -0.3526875759470851,
          0.21568857048328605
        ],
        [
          -0.10863470836165064,
          0.5833345294847172,
          0.7233483290623536,
          -0.5634589533322354,
          -0.30614608314804065,
          -0.14644498015847185,
          0.7486484556033196,
          -0.371450563690212
        ],
        [
          0.43223719325872617,
          -0.6034907613461292,
          0.02210707997048693,
          -0.9024152886407973,
          -0.1270798232961255,
          -0.30181994023713965,
          0.16462417434313378,
          -0.40348795910354934
        ],
        [
          0.2888205316702989,
          0.2740995357813539,
          -0.6143554500175497,
          0.8197746435374034,
          -0.13956139719196292,
          0.30419339535923257,
          -0.48112829348658004,
          0.450759283894572
        ],
        [
          -0.7915338906770649,
          -0.8862092570398945,
          0.04050249807490034,
          -0.5029640568171662,
          0.47218016922900363,
          0.49106820540071516,
          -0.46717632502092477,
          0.6874042405277285
        ],
        [
          -0.3465469890326013,
          -0.01812331157584557,
          0.47898694997903346,
          0.06028422855889383,
          0.6134256695854174,
          -0.6493219213936572,
          -0.6095197442522087,
          -0.5779790625379484
        ],
        [
          0.37322454592748333,
          -0.6626195418361285,
          0.35641006729702046,
          -0.5798125144422773,
          -0.6083208392678916,
          -0.8794026627404582,
          -0.952182428303045,
          0.12785263702251176
        ],
        [
          0.5750989674187077,
          -0.1562765773141705,
          -0.3025502235986574,
          0.49411959828013846,
          0.1748592373899213,
          0.023640043057242766,
          -0.6837718980234305,
          -0.7638705116786315
        ],
        [
          -0.04167907699577052,
          -0.33736428752193204,
          0.04512583439933595,
          0.4198742166930899,
          -0.6422641000106133,
          0.08045071057926559,
          0.6085116130228873,
          0.03104680297363241
        ],
        [
          0.7266469404862875,
          -0.09724412966657307,
          -0.6201941609643092,
          -0.5142258881663875,
          0.8841792564536213,
          0.3274514126668045,
          0.44174969162168,
          0.8432008915339952
        ],
        [
          -0.42038384883968105,
          0.14747572420904748,
          -0.7405714169983739,
          0.28517999629970175,
          -0.5955926917968112,
          0.7372093876356592,
          -0.5476524382106589,
          0.4781802319730172
        ],
        [
          0.16480753290533645,
          0.3621666305370171,
          -0.1321625882313807,
          0.02618807975053386,
          0.04920086603740595,
          0.8279298911287915,
          0.44091846527222683,
          0.1213277459945847
        ],
        [
          -0.37682986783880995,
          -0.5923681111457966,
          -0.29409390950756065,
          0.32462103013149946,
          -0.10239765066004418,
          -0.3432940640211528,
          -0.21698242052989475,
          -0.6744604061263573
        ],
        [
          -0.3723740026451765,
          -0.5875017352506683,
          -0.7879516716352345,
          -0.014636070705022708,
          -0.5104394188140925,
          0.21903094244078708,
          -0.3251342167790912,
          -0.2999404571059901
        ],
        [
          -0.5345928471094582,
          -0.27590476363094807,
          -0.8627771496262749,
          0.3165614828702478,
          0.5473331251308307,
          0.6693467712604404,
          0.3158590347184529,
          -0.7126037370710835
        ],
        [
          -0.05267513846727525,
          -0.488304484345322,
          0.34511972100296306,
          -0.38732952070161997,
          0.4909031619025607,
          -0.5760315930668585,
          -0.1353545130628026,
          -0.7673963006637448
        ]
      ],
      "biases": [
        -0.13784507300216692,
        -0.44700475515103644,
        -0.10235513006561059,
        -0.9199279467142668,
        0.09229409029002733,
        0.21185667479599082,
        0.7381940937070381,
        -0.8234330520020869
      ]
    },
    {
      "inputs": [
        0,
        1,
        0,
        1,
        0,
        1,
        0,
        1
      ],
      "outputs": [
        1,
        0,
        1,
        0
      ],
      "weights": [
        [
          0.8970449392844471,
          0.7179634383705006,
          0.6877601513583204,
          0.8844538046955374
        ],
        [
          -0.7485072100403212,
          -0.03773389415464403,
          -0.2505325243323193,
          -0.39437825166803225
        ],
        [
          -0.4675814636019193,
          -0.7905913676908746,
          -0.08118706393412274,
          0.5754691758190407
        ],
        [
          -0.25169147887130394,
          -0.6341587878488707,
          0.41797276005830414,
          0.8946021967843899
        ],
        [
          -0.23536951307478232,
          -0.04540049375187751,
          -0.1698228615350155,
          -0.2679619033569929
        ],
        [
          -0.34004940838630143,
          0.8281990478012884,
          0.6340524272805211,
          0.04202409072579792
        ],
        [
          -0.08307178078885387,
          0.23259041390511925,
          -0.4416304427337511,
          0.4235296412234492
        ],
        [
          0.8480840328060901,
          -0.9398597463944923,
          0.030964088989625167,
          -0.8041978397486619
        ]
      ],
      "biases": [
        -0.5280007031160182,
        0.8645402084349842,
        0.6069949253469022,
        -0.10206569035405692
      ]
    }
  ]
}