[
    {
        "inputs": [
            0.10704812631734051,
            0,
            0.5460391505156146
        ],
        "outputs": [
            0,
            0,
            0,
            0,
            0,
            0,
            0,
            1,
            0,
            1
        ],
        "biases": [
            0.09286811608594499,
            0.9204556185962993,
            0.8963092819224919,
            0.5442699037840668,
            0.5016536549275953,
            0.2595265664519516,
            0.7245518828793427,
            -0.4765503317743048,
            0.5755392160617671,
            -0.6592463502825994
        ],
        "weights": [
            [
                -0.7358013767011145,
                -0.5972174620101697,
                0.6589286871879346,
                -0.5984629590334053,
                -0.0394386043349297,
                0.341947087389228,
                0.39964202679496635,
                0.6710945279515608,
                -0.24009975367436892,
                0.5433955936886453
            ],
            [
                0.6083928992593199,
                -0.01023449170361293,
                -0.0138637968259704,
                0.3185713319973125,
                0.49463277595514543,
                0.9017105514305529,
                0.760539696957994,
                0.7868067295325969,
                -0.17358200756970804,
                -0.37519201324497675
            ],
            [
                -0.7746124577297635,
                0.2186069587443964,
                0.41748691509344954,
                0.04843740809032067,
                0.8493561005544635,
                -0.5286261682955518,
                0.43915374467987206,
                -0.20200513067162235,
                0.18599991799184096,
                -0.4821187325065572
            ]
        ]
    },
    {
        "inputs": [
            0,
            0,
            0,
            0,
            0,
            0,
            0,
            1,
            0,
            1
        ],
        "outputs": [
            1,
            0,
            1,
            1,
            1,
            1,
            0,
            0,
            0,
            0
        ],
        "biases": [
            -0.728768441780844,
            0.7322942509700247,
            0.059957408514904185,
            -0.947957000319853,
            -0.18994617690585486,
            -0.3805145324252901,
            0.324744313523047,
            0.2193906302020979,
            -0.495233964273552,
            0.889224146155067
        ],
        "weights": [
            [
                -0.7676350010264832,
                -0.2198278277468385,
                -0.2533458594997877,
                0.6978471909880067,
                -0.7702932231588954,
                0.2599990018294781,
                -0.321135915795757,
                0.32553627938988156,
                -0.06464308875141016,
                0.9092635138587198
            ],
            [
                -0.08578872071099641,
                0.48389539821649397,
                -0.5467623450934866,
                0.3161128427324832,
                -0.7033734659684496,
                -0.6241402453040814,
                0.754608424982304,
                -0.22383695499585615,
                0.7997284617713588,
                0.8143072631797041
            ],
            [
                0.3457956423489534,
                -0.5565159249853777,
                0.4772824206362393,
                -0.15183348022990875,
                -0.0343672688473031,
                0.8099862500283492,
                -0.5688593886785046,
                0.8220562619435334,
                -0.6050446666198773,
                0.2025891310589866
            ],
            [
                -0.21994028856678285,
                -0.6476542423135296,
                -0.7653762918839313,
                0.2426213298815716,
                0.3743016201139554,
                0.5094342263958178,
                0.16345478786864995,
                -0.14825503536047574,
                -0.3244633272641107,
                0.47999659906904246
            ],
            [
                0.06956974111801122,
                0.1383957059521972,
                -0.3134527166203531,
                -0.23354783076152374,
                0.31423382998391636,
                -0.5287068382226551,
                -0.06670591417633936,
                -0.2757301589175323,
                0.7110697556611103,
                -0.9812905862943154
            ],
            [
                -0.5910315657437137,
                0.16937223375372273,
                0.17660812417156396,
                0.22277812474047273,
                0.3247295235753826,
                -0.6452879364927473,
                -0.7105419931771046,
                0.09783048552385104,
                0.9468066191721151,
                -0.7973548486884465
            ],
            [
                0.856825389989773,
                0.02577244954864155,
                -0.3903333519943988,
                0.8988873794722263,
                -0.5457384513187371,
                -0.5661815988998253,
                -0.09037800949799653,
                -0.11381978566266247,
                0.16562257576049227,
                -0.2853023402224845
            ],
            [
                0.9392424767014036,
                -0.17094359127718217,
                0.8315782498494951,
                0.33836965343853836,
                -0.24488979537154598,
                -0.1778199267800115,
                0.06504685386637862,
                0.22231830086823356,
                -0.8275605334170849,
                -0.008944593028457827
            ],
            [
                -0.9438334506587414,
                0.08501697421169113,
                -0.29214981672627893,
                -0.638019667979865,
                -0.8046938360318199,
                0.2798412214212965,
                -0.4166895186086146,
                0.35551723120874423,
                -0.5462198501737046,
                -0.5818695898845627
            ],
            [
                -0.23647408318062174,
                0.4072809686900333,
                0.0964691448458728,
                0.4332272411207527,
                0.8795140293267947,
                0.4328040339924468,
                -0.6653480827823367,
                -0.6379550478589798,
                -0.2535666062980955,
                -0.8681522907841434
            ]
        ]
    },
    {
        "inputs": [
            1,
            0,
            1,
            1,
            1,
            1,
            0,
            0,
            0,
            0
        ],
        "outputs": [
            1,
            0,
            1,
            0
        ],
        "biases": [
            -0.007253135604675928,
            -0.12421622992912518,
            0.591955617017202,
            0.8666586827645868
        ],
        "weights": [
            [
                0.7779657242601554,
                -0.2919762257527283,
                0.18319654902107024,
                0.7558311442503987
            ],
            [
                0.5456312893615995,
                -0.4498242790212619,
                0.4271965236066238,
                0.9166530241907557
            ],
            [
                -0.7136442457530904,
                0.1102071795786744,
                0.2909856266540194,
                -0.4665508952339865
            ],
            [
                0.7044156023320004,
                -0.061062404743721474,
                0.6197602839938857,
                -0.37174471588504704
            ],
            [
                -0.80514431964413,
                0.2429996158551652,
                0.3281283159063058,
                0.7161511328544425
            ],
            [
                0.6025482660263269,
                -0.5830322806398456,
                -0.03708130952560976,
                0.20984051799269388
            ],
            [
                0.5575091114164539,
                -0.01041402774567366,
                0.6873094160782877,
                0.12553174396594907
            ],
            [
                0.01103759447699662,
                0.16962454435344826,
                -0.773308912740361,
                -0.29759047272380984
            ],
            [
                -0.30797778798235853,
                -0.2985707174491961,
                -0.4251523635511274,
                0.05195865982620944
            ],
            [
                -0.27426459594985014,
                0.7403632931938849,
                0.7455711768096511,
                0.969260020294082
            ]
        ]
    }
]