{
  "levels": [
    {
      "inputs": [
        0,
        0,
        0,
        1,
        0,
        1,
        0,
        -1,
        -1
      ],
      "outputs": [
        1,
        1,
        0,
        1,
        1,
        0,
        1,
        0,
        0,
        0,
        0,
        1,
        1,
        0,
        0,
        1
      ],
      "weights": [
        [
          -0.332745777000387,
          0.005646841440699435,
          0.03997860343110138,
          -0.4007242982546542,
          -0.23165615454819263,
          -0.05650469366564803,
          -0.35696271436662974,
          0.3048334835908543,
          0.311386511755919,
          -0.4979506834686278,
          0.1863227311900031,
          -0.17588404845443056,
          0.5436245894789149,
          0.5631448503958381,
          0.6086977228684735,
          0.26598616981969697
        ],
        [
          -0.34272354612862255,
          0.35014009066904395,
          -0.25156323187862234,
          -0.1983856430629674,
          0.28048354638390216,
          -0.12254582583600579,
          0.08006953921935278,
          0.2447927122177735,
          -0.30191356811990017,
          0.5876377187594075,
          -0.32912869192297345,
          -0.49409518064045976,
          0.21495761108219322,
          0.38894128111957094,
          0.40764698566316987,
          0.23796672671183422
        ],
        [
          -0.8965947972335254,
          -0.5686384324154803,
          -0.2698437233619838,
          0.06909959529118265,
          0.2627216806948135,
          0.33711447637961106,
          -0.12899959318656412,
          0.33778429861913406,
          0.5100587363658098,
          0.13239762339848835,
          0.032535100519499774,
          0.4227536601481269,
          -0.4779798358770151,
          -0.3596253150348113,
          0.4674384813589304,
          -0.4750813253694487
        ],
        [
          -0.6033542987338607,
          -0.27738908983604,
          -0.310765767244314,
          0.41566290790955274,
          0.06732174940391684,
          -0.478063348872812,
          0.5008624126212455,
          -0.19034587960138838,
          0.21394900331280198,
          -0.5139447561905448,
          -0.719340266750151,
          0.5613945123315033,
          0.4193581117117691,
          -0.39035467609838126,
          -0.026388716987161276,
          0.07647136307516322
        ],
        [
          0.4474451370745197,
          0.03455787369202632,
          0.351411326546281,
          -0.6140934888205649,
          -0.2438507370555597,
          0.12570337254301317,
          -0.5607183923433262,
          -0.5595486964187529,
          0.4289832622367209,
          -0.23143377888898176,
          0.05794151358742705,
          0.5474090093295323,
          -0.43204935269876005,
          -0.6798240438229178,
          -0.34866516231304223,
          -0.19013034585966504
        ],
        [
          -0.44665722528888185,
          -0.5018896276806848,
          -0.47979733270473424,
          0.3073844557319233,
          0.11694410210783049,
          -0.1804880239611743,
          0.5749920815873193,
          0.8219734042076549,
          -0.5345556452498808,
          -0.05792508774650698,
          -0.07521559978980642,
          0.4871608606143625,
          0.5869441003180698,
          -0.091545825817122,
          0.13723279937319732,
          0.5726936536125569
        ],
        [
          0.0263265923851419,
          0.8138470096856046,
          0.5396522382109669,
          -0.34764644023853664,
          0.3799932344150877,
          -0.629191559072293,
          -0.6161980413511371,
          -0.19768037699338067,
          0.4096183255275278,
          0.331256791694792,
          -0.749314024342555,
          0.5411703908952752,
          0.04061151311046712,
          0.13485353420325874,
          0.07778927485097911,
          0.399268564416871
        ],
        [
          -0.49481404014430225,
          -0.5469218065598145,
          0.6044814120768067,
          -0.5965945365317729,
          0.3165463795015756,
          0.5262111679071004,
          -0.632365853372025,
          -0.2810037953986418,
          0.4412926501720022,
          -0.6427272951480785,
          0.47031678483492445,
          0.3266527288926344,
          0.29272880747123164,
          -0.21970059852054372,
          0.7299188135569608,
          0.6580883055743167
        ],
        [
          -0.5462438415626348,
          -0.5121794109059086,
          0.29058956702498645,
          0.09419546742391594,
          0.343642721533711,
          -0.15203564176623238,
          0.7025415670795649,
          0.5804846256908973,
          -0.020877325487189874,
          0.14097801607259236,
          -0.8019404542920596,
          -0.46461206910988107,
          0.06490323734300174,
          -0.06347699046648185,
          0.14185789398364418,
          0.3522759596077882
        ]
      ],
      "biases": [
        -0.2516769577837488,
        -0.16706771297107978,
        0.7900238828291901,
        -0.18942688225428544,
        -0.6157830475121641,
        -0.3048716886397497,
        0.5975865537315092,
        0.6484543457958443,
        -0.22348398928095303,
        0.4973553098669277,
        0.39182325412659275,
        0.058639303273176055,
        -0.47017189233576784,
        0.7172639710930417,
        -0.3096113614918051,
        -0.41601687560599987
      ]
    },
    {
      "inputs": [
        1,
        1,
        0,
        1,
        1,
        0,
        1,
        0,
        0,
        0,
        0,
        1,
        1,
        0,
        0,
        1
      ],
      "outputs": [
        0,
        1,
        0,
        1,
        0,
        1,
        0,
        0
      ],
      "weights": [
        [
          -0.4125215481612618,
          0.29672592106488344,
          -0.38205829661739477,
          0.0028226888210233503,
          -0.10685091523056718,
          0.31951405800475463,
          0.5612707589448829,
          -0.21114885321055196
        ],
        [
          -0.20551227722912246,
          0.12512756665029787,
          0.3823261576326417,
          0.056394640166019944,
          0.14753877814557975,
          0.7505105894654795,
          -0.5882252463150832,
          -0.6225285265075822
        ],
        [
          -0.6597001061285444,
          0.4244694991367745,
          0.4250303195614976,
          -0.31662341543028033,
          0.18457975699354193,
          -0.03842075604753184,
          -0.1479724958112567,
          -0.7829468047630561
        ],
        [
          0.05008621286510656,
          0.43161457535725345,
          -0.4957727821780786,
          0.1660509691864112,
          -0.5735621954779277,
          -0.003148304188454021,
          -0.25993397360138226,
          0.477217166362582
        ],
        [
          0.06767466133864569,
          -0.43126920803961644,
          -0.4520318462683085,
          -0.7935145755693975,
          -0.2319154698026546,
          0.5068148786002463,
          -0.44395360125656075,
          -0.6928924463610964
        ],
        [
          -0.16541519483364495,
          0.8283938563123003,
          0.39378943419675944,
          0.35686939092955683,
          -0.005932640200223459,
          0.4453327263631406,
          -0.23370741887809773,
          0.07805533545089638
        ],
        [
          0.30667568956975455,
          0.6887568379146016,
          0.025229164374699464,
          0.5689737895966034,
          -0.38704793236082796,
          0.029839852584511384,
          -0.2976292219697043,
          -0.5944049524283131
        ],
        [
          0.44654372505914613,
          -0.28013685263419086,
          0.6319707626956018,
          -0.5211401979764755,
          -0.8089085931869786,
          -0.7770998610963413,
          0.011659976024363222,
          0.4667274325192525
        ],
        [
          0.16427517034283268,
          -0.572046729089523,
          0.4372848662721452,
          -0.7225435175059401,
          0.6127669298019426,
          0.5956358529266337,
          -0.1991076428810637,
          -0.44856622791477563
        ],
        [
          -0.6883462206596267,
          -0.1143627524949542,
          0.5945367287432414,
          -0.11760486985929991,
          0.4190706727088809,
          -0.7383506755615198,
          -0.6922723456716755,
          -0.5592183372729381
        ],
        [
          -0.1880087809137964,
          0.37296128562220654,
          -0.010822725426358842,
          -0.3972137227248585,
          -0.29626107903368504,
          -0.4935691598787201,
          0.7370374032166601,
          -0.5837454590049695
        ],
        [
          -0.6337716772531099,
          -0.5550001030463789,
          -0.5696603591399174,
          -0.22973879179839507,
          -0.8635304881673327,
          0.3753026654941885,
          -0.34772826757003117,
          0.6158761919341598
        ],
        [
          0.5248560667975825,
          -0.0646254130855496,
          -0.24503924968841045,
          0.13509246743941397,
          -0.45248792884764916,
          -0.19503596541653379,
          -0.07687354969868732,
          -0.3619044176935519
        ],
        [
          -0.05709523909103045,
          -0.44247584805188656,
          0.5125469964455378,
          -0.4681191566200746,
          -0.39406266814997626,
          -0.49507141641239666,
          -0.3386623351377738,
          -0.6157606358759298
        ],
        [
          -0.39887777721774464,
          -0.6507387612531013,
          0.4097881744523385,
          0.8055460793557278,
          0.607481444638263,
          0.5242852951977921,
          -0.5978735402058944,
          0.7344375384672042
        ],
        [
          -0.9436299898957059,
          0.8669635163304114,
          0.11401478142551476,
          0.44520176547064827,
          -0.10986678970034278,
          -0.5477903574289477,
          -0.8878273555726703,
          -0.8862325306313333
        ]
      ],
      "biases": [
        -0.5989304910818363,
        -0.7093833744066426,
        -0.6090207697882084,
        -0.6297773758577745,
        -0.6682804493105233,
        -0.5762782233549387,
        -0.21040720138351268,
        -0.8693813001746793
      ]
    },
    {
      "inputs": [
        0,
        1,
        0,
        1,
        0,
        1,
        0,
        0
      ],
      "outputs": [
        1,
        0,
        1,
        0
      ],
      "weights": [
        [
          0.3490841687155572,
          -0.3778183811543422,
          0.13485979932344444,
          0.07768410087713304
        ],
        [
          -0.043120081778678765,
          -0.501989092795075,
          0.23277330656476003,
          -0.4619289067814759
        ],
        [
          0.180224789884601,
          0.32537305803521477,
          -0.24121261643756003,
          0.18970681996625377
        ],
        [
          0.6389696134648247,
          -0.0753120094093114,
          0.40205989375911544,
          -0.12159953720166183
        ],
        [
          0.6816617505237386,
          -0.07237151709561145,
          0.11578968701803585,
          -0.721255669588907
        ],
        [
          -0.048504908025835514,
          -0.11303517597791446,
          0.5084689099004597,
          0.8369656710218915
        ],
        [
          0.44196556925353614,
          -0.0695839017135898,
          -0.734155371365444,
          -0.2814037823110996
        ],
        [
          -0.5020735683058924,
          0.12607503449449203,
          0.31800927372762866,
          0.5610413000156651
        ]
      ],
      "biases": [
        0.2679543114329197,
        -0.3341258257560485,
        0.32031901289824327,
        0.3745847130446378
      ]
    }
  ]
}