[
    {
        "inputs": [
            0,
            0,
            0,
            1,
            1,
            1,
            0
        ],
        "outputs": [
            0,
            1,
            0,
            0,
            0,
            1,
            0,
            0,
            0,
            0,
            0,
            1,
            0,
            0,
            0,
            1
        ],
        "weights": [
            [
                -0.3174215557599429,
                0.17630631247468648,
                -0.3624775929919048,
                -0.540559290439248,
                -0.003972499690897191,
                -0.3210545186766802,
                0.43588516570412794,
                -0.08195434779440641,
                -0.2939261834993443,
                -0.41576866873601526,
                0.5716903524361617,
                -0.03591178014702025,
                0.16479892067939086,
                0.15308686979899488,
                -0.21898947290314508,
                0.3049381286875996
            ],
            [
                -0.42689519955605826,
                0.522233863580056,
                -0.4210938940164637,
                0.4601077908541237,
                0.46487529749970863,
                -0.30891717637371263,
                0.38935329868126334,
                0.6345078981214961,
                -0.08650963065152756,
                0.5193070484086574,
                -0.3842723731720567,
                0.4957908425937612,
                0.5086746412744089,
                -0.10623242210231056,
                0.4366367184999271,
                -0.3335447129672183
            ],
            [
                -0.49158097852767957,
                0.1849111714026019,
                0.2990741982356012,
                -0.288945266979304,
                -0.43501178385610695,
                0.2358171981915572,
                -0.47535693451040206,
                0.4174967106880713,
                -0.20786944874385999,
                -0.22110439974044147,
                -0.4992372015365621,
                -0.10366524892443474,
                0.4260360519385137,
                0.6506727013132086,
                -0.44648501840623467,
                0.17365803690725634
            ],
            [
                -0.6417530306815622,
                -0.44230027162380237,
                0.04632357740915622,
                0.6555048112916781,
                -0.4599070319678837,
                -0.07614219470546213,
                -0.48083950960508864,
                -0.29739512458419737,
                -0.08730504952006661,
                -0.6695084155907333,
                0.08782810438566861,
                -0.14709857475671895,
                -0.5112579599478541,
                -0.41124689097964445,
                0.07174209420327851,
                0.229823190272742
            ],
            [
                -0.37383245079103794,
                -0.2313732628893942,
                -0.6102816740352243,
                -0.2461886948428943,
                -0.2354330300018889,
                -0.2158501993067429,
                -0.005120479037554387,
                -0.5054273759000119,
                -0.5208639872786561,
                0.19138974720972443,
                -0.19332887933507703,
                0.3152640686394063,
                -0.13808706287755934,
                0.020035625792882414,
                -0.1459791982571141,
                -0.0157514013620626
            ],
            [
                0.4020828101811442,
                0.2080690498301664,
                -0.2750366175845654,
                -0.6830624439965101,
                -0.2864455425393494,
                0.5021043507606713,
                -0.6375848288020634,
                -0.02970001420838437,
                0.021427921076422024,
                -0.5246377018649758,
                -0.3189314198889784,
                0.6405924789751671,
                -0.6117801717827757,
                -0.15845207341343312,
                0.27415205911262025,
                0.03602731758065289
            ],
            [
                -0.5311588724443693,
                0.22356694822166245,
                -0.7383945638441624,
                -0.32970049071297347,
                0.4276023106598114,
                0.30797360658713496,
                -0.43538853762887403,
                -0.35132254207361274,
                0.6005429403174992,
                0.5161998212873001,
                -0.16834562255921076,
                -0.3929025013973798,
                -0.2823239456639576,
                0.3049174141544504,
                -0.27217096341781233,
                0.25843638369007804
            ]
        ],
        "biases": [
            0.299834635752961,
            -0.6013622526452583,
            0.4005049741061452,
            -0.12733065385138992,
            -0.41812209175481563,
            0.13312518375237345,
            0.06077692215100966,
            0.299112025952464,
            0.10620432707320054,
            -0.27243763786541186,
            -0.18200226995843882,
            0.12285725688260876,
            0.46663290325518647,
            -0.2346786631596829,
            0.37301940971375086,
            -0.226688413822692
        ]
    },
    {
        "inputs": [
            0,
            1,
            0,
            0,
            0,
            1,
            0,
            0,
            0,
            0,
            0,
            1,
            0,
            0,
            0,
            1
        ],
        "outputs": [
            0,
            1,
            1,
            0,
            1,
            0,
            1,
            0
        ],
        "weights": [
            [
                0.5697249717518048,
                0.5812943302855644,
                0.5308680940382693,
                0.6915020573057026,
                -0.16723240415500934,
                -0.036321018217298856,
                -0.7246912977940024,
                -0.10625217819068768
            ],
            [
                -0.1526019996870599,
                0.30612185526709307,
                0.0012426166610646494,
                -0.5706535063843678,
                -0.5865102914426764,
                -0.6673304604362512,
                0.6324111577421592,
                -0.3418188016120125
            ],
            [
                -0.2502212634874375,
                0.0632776879866503,
                -0.6546586525625457,
                0.4700176614039922,
                -0.19583933435247647,
                0.030248896588353433,
                0.03622583570191115,
                0.007434933230848484
            ],
            [
                -0.27869493520740163,
                -0.4478950175366117,
                -0.4474016104099132,
                -0.5781418228314064,
                -0.15265427327291237,
                0.46908376894898246,
                -0.17059749377559907,
                0.23220767353645685
            ],
            [
                -0.45696003179334144,
                0.08880331132117505,
                -0.5675776847927935,
                -0.398065381944948,
                -0.6342671742082296,
                0.3576885445115027,
                0.547894936634225,
                -0.2801897831884006
            ],
            [
                -0.31762040915900724,
                -0.12434769499274652,
                0.47786745914536694,
                -0.6438927340370915,
                0.4913816620492001,
                -0.7558164453073166,
                0.30246461990606105,
                0.8173097523480434
            ],
            [
                -0.12571558494267565,
                -0.03679854842129773,
                0.20396643450513613,
                -0.22279113754234758,
                0.0020591430402804867,
                -0.666631986745238,
                0.20999721191770748,
                0.06717986856365654
            ],
            [
                0.056649905593848054,
                -0.021482973288979905,
                0.4244613851642678,
                0.5958073546066767,
                0.10526002377779275,
                -0.10431716426702317,
                -0.5780562221546162,
                0.46267337633718714
            ],
            [
                -0.055516944633705156,
                0.3349798540954193,
                -0.6301473528444326,
                -0.4281543895161032,
                0.3477009351983482,
                -0.07392601043645221,
                0.38743478335292914,
                -0.47409707191650596
            ],
            [
                -0.22031595862260528,
                -0.37297804808272894,
                -0.32275918769406925,
                0.5317333882816702,
                -0.2753825074611951,
                -0.06461550194765202,
                0.18013260951999505,
                -0.156510641054139
            ],
            [
                0.6575861546835032,
                0.6795395603616871,
                0.027615920082970757,
                0.5080354151783302,
                -0.495864210398268,
                0.5776634144667585,
                -0.630640315689496,
                -0.07941506911714903
            ],
            [
                -0.12862853160219856,
                0.11005271772675644,
                0.20808622144079023,
                -0.037601161986514905,
                0.742373189723806,
                0.715891598221048,
                -0.15714539775292632,
                -0.13086751507748712
            ],
            [
                -0.23755926437024205,
                -0.19151011018458552,
                0.3009524984145038,
                -0.03722986064106394,
                -0.31856910048107084,
                -0.6238899348589928,
                -0.11152207830934166,
                -0.6183347852203366
            ],
            [
                0.24277056283164075,
                -0.14219279446635108,
                -0.3290391907427671,
                -0.3203111044350918,
                -0.3199018488218642,
                -0.051323135133601136,
                -0.3762509899973069,
                -0.6203261720472046
            ],
            [
                0.554748428153037,
                -0.26300166933164587,
                -0.008041429921042387,
                -0.5162314503890806,
                -0.34848243750364494,
                0.24926837178882744,
                -0.13647854201289217,
                0.08812371631974983
            ],
            [
                -0.2692030486224017,
                0.29722189351084727,
                -0.016391591024735527,
                0.3935126000947314,
                -0.4438680570759275,
                -0.020309991611898434,
                0.458487328884062,
                -0.7543096249979656
            ]
        ],
        "biases": [
            -0.5179201493994186,
            0.0674056609775522,
            -0.4811481339893398,
            0.6273791656001256,
            -0.5714955508559143,
            -0.5855673643665269,
            0.6707658480687125,
            0.509899499787371
        ]
    },
    {
        "inputs": [
            0,
            1,
            1,
            0,
            1,
            0,
            1,
            0
        ],
        "outputs": [
            1,
            0,
            1,
            1
        ],
        "weights": [
            [
                -0.32184626438775554,
                -0.34810593975567217,
                0.03034967560848409,
                -0.4082077667546391
            ],
            [
                0.35591242023823916,
                0.1223853867089515,
                0.33578474438043737,
                -0.33082336125676287
            ],
            [
                -0.13952032443438384,
                -0.23265431893073893,
                -0.0201940101934954,
                0.6186118861893289
            ],
            [
                0.45996928066127196,
                0.6213381549545235,
                0.13332719485669464,
                -0.30171391882086224
            ],
            [
                0.10152205174227423,
                -0.27726808820834203,
                -0.09445938419257247,
                0.44405353189395036
            ],
            [
                0.10281021094418186,
                0.5297659321872408,
                -0.7351096602220224,
                -0.5414828295552805
            ],
            [
                0.23356529579648963,
                -0.026760691772960914,
                0.6219073722420639,
                -0.5028444686164021
            ],
            [
                -0.006754113851724183,
                0.5389311241593264,
                0.02547598920501557,
                0.7915124595434598
            ]
        ],
        "biases": [
            0.276952917931164,
            -0.09954048646212446,
            -0.17481963107931037,
            -0.16868948367226633
        ]
    }
]