{
    "levels": [
        {
            "inputs": [
                0.6526517280952017,
                0,
                0,
                1,
                0,
                1,
                1
            ],
            "outputs": [
                0,
                1,
                0,
                0,
                1,
                1,
                0,
                0,
                1,
                0,
                0,
                0,
                0,
                1,
                0,
                1
            ],
            "weights": [
                [
                    -0.40919904199608403,
                    0.1337312640409755,
                    -0.5393129538861464,
                    -0.5794660385532696,
                    -0.08238716848959189,
                    -0.44400265484294854,
                    0.6875376468854408,
                    -0.1991354432070016,
                    -0.23832430492580603,
                    -0.3605868467635791,
                    0.6310959426548408,
                    -0.08935690751377702,
                    0.10404943989533957,
                    0.19619433080127904,
                    -0.4079519734022089,
                    0.46891022080257033
                ],
                [
                    -0.5380152751709846,
                    0.6048006931148636,
                    -0.47149577828120237,
                    0.5682541463302213,
                    0.6780745434725585,
                    -0.31306014730566034,
                    0.5033084881982153,
                    0.6861495806568989,
                    -0.2583673791425802,
                    0.6331540082912909,
                    -0.5251350948230814,
                    0.6042422124947886,
                    0.6359033514807559,
                    -0.23971005815877122,
                    0.5932976255840476,
                    -0.33077284288923237
                ],
                [
                    -0.6621051530343043,
                    0.2273197971636514,
                    0.36356716732613686,
                    -0.4506163262921839,
                    -0.6722111123049108,
                    0.5013635708211357,
                    -0.4397719598564379,
                    0.4612126537771481,
                    -0.1406410525738195,
                    -0.20469494743250152,
                    -0.6296347551509504,
                    -0.09018223304277212,
                    0.4043023772750567,
                    0.6283043369709653,
                    -0.5872873984795927,
                    0.24142559269959646
                ],
                [
                    -0.7170267876363178,
                    -0.42809293365744755,
                    0.012631252387392836,
                    0.7218097635355532,
                    -0.3860840428845357,
                    -0.13204051067043993,
                    -0.589967953903316,
                    -0.27134660232945973,
                    -0.09671420162087846,
                    -0.7749011291877775,
                    0.14109417973245672,
                    -0.14705406474754637,
                    -0.7473158369143631,
                    -0.4744667020481757,
                    0.004054976273175409,
                    0.4467610175841261
                ],
                [
                    -0.40526898688837226,
                    -0.23704303615945052,
                    -0.7129422136731264,
                    -0.11643951464155573,
                    -0.34590833040924107,
                    -0.2591409584396357,
                    -0.08568010290783626,
                    -0.5571171879993121,
                    -0.7600901804045382,
                    0.3812310489145954,
                    -0.2557414998621036,
                    0.22250488035398683,
                    -0.3827569149598212,
                    -0.05069700831666936,
                    -0.1841844407814332,
                    -0.023161032006118992
                ],
                [
                    0.6018251238861085,
                    0.25476518940430115,
                    -0.35066681865265853,
                    -0.8082318517885989,
                    -0.39307741078848063,
                    0.5952057179618199,
                    -0.8135430213639349,
                    -0.0072015199155563495,
                    0.21690585354653433,
                    -0.5304180230657359,
                    -0.43857467012635504,
                    0.7033642177701255,
                    -0.6846025476010345,
                    -0.27933535442306284,
                    0.3034372833178689,
                    -0.1467986464309115
                ],
                [
                    -0.7411383451707811,
                    0.4121905897946639,
                    -0.6897858824651575,
                    -0.3227594835907725,
                    0.48604078206300505,
                    0.5186789701524408,
                    -0.5630362264836953,
                    -0.3597258175777789,
                    0.7134248407810723,
                    0.6199239675804752,
                    -0.29516387464902955,
                    -0.5012572109713982,
                    -0.3328856914978054,
                    0.2938470075336096,
                    -0.17013324639075353,
                    0.3228690632920248
                ]
            ],
            "biases": [
                0.4344984696724771,
                -0.6308695258699841,
                0.5776167425684374,
                -0.13433096712622047,
                -0.5628758830945815,
                0.12047537125913556,
                0.11557415859893973,
                0.3224669500065823,
                0.058267215745563004,
                -0.3365139477146717,
                -0.17672486147462813,
                0.18496919853741056,
                0.5706585206820917,
                -0.39905996168013336,
                0.36132243870762215,
                -0.2246466040065686
            ]
        },
        {
            "inputs": [
                0,
                1,
                0,
                0,
                1,
                1,
                0,
                0,
                1,
                0,
                0,
                0,
                0,
                1,
                0,
                1
            ],
            "outputs": [
                0,
                1,
                0,
                0,
                0,
                0,
                1,
                0
            ],
            "weights": [
                [
                    0.7127904811761021,
                    0.7487484790868381,
                    0.5244406895400355,
                    0.7722250377332391,
                    -0.19993641686270475,
                    -0.04977554984718268,
                    -0.7602907691762393,
                    -0.14483424407302362
                ],
                [
                    -0.32828990191762464,
                    0.4676546648074652,
                    0.1507526185403006,
                    -0.6543713565178138,
                    -0.7390264323864989,
                    -0.7921897316751805,
                    0.6191341138566466,
                    -0.6271620284749588
                ],
                [
                    -0.15725972209472175,
                    0.1517662898264807,
                    -0.6281104336043873,
                    0.567277132763297,
                    -0.0831847535835249,
                    0.15183835694573444,
                    -0.14931937996687167,
                    -0.06651784527859947
                ],
                [
                    -0.20952403297215108,
                    -0.46828236795284284,
                    -0.4605423823865161,
                    -0.6474253071443928,
                    -0.015416477935829242,
                    0.4356871403580067,
                    -0.10286646069386578,
                    0.2845364762544792
                ],
                [
                    -0.6638878189959322,
                    0.1387660271813429,
                    -0.5211301183046388,
                    -0.5298986344776736,
                    -0.6942354689883556,
                    0.42674518387328586,
                    0.6170610323392527,
                    -0.46043607514332613
                ],
                [
                    -0.44812857867473344,
                    -0.1715968656535779,
                    0.6343899877239191,
                    -0.8093400680278149,
                    0.616134541906064,
                    -0.8145247953283281,
                    0.34789983977039685,
                    0.8583647353301836
                ],
                [
                    -0.22656388818919054,
                    -0.03436628717480803,
                    0.1308712888015408,
                    -0.3168179230082579,
                    0.16581903065763942,
                    -0.8031307305012677,
                    0.13092874380389416,
                    0.143316668182851
                ],
                [
                    -0.12464174432955322,
                    -0.054539088311903204,
                    0.5262427086536401,
                    0.6336294883370724,
                    0.1440993007356099,
                    -0.26085795760294084,
                    -0.6100644011243246,
                    0.5320990946337791
                ],
                [
                    0.07090400310791473,
                    0.4598073755325017,
                    -0.5725949847227155,
                    -0.6545824249829882,
                    0.6054320408430302,
                    -0.06884768605066807,
                    0.4529999039386322,
                    -0.42443161071280683
                ],
                [
                    -0.4226336014701898,
                    -0.4101605853281471,
                    -0.23306253080089048,
                    0.814643105245149,
                    -0.3623513774743622,
                    -0.10486737079011363,
                    0.22298678899217012,
                    -0.3898134931373357
                ],
                [
                    0.7602066849341759,
                    0.8682288787266358,
                    0.002951299419292945,
                    0.5908082584249623,
                    -0.5597013922650026,
                    0.7411231519276337,
                    -0.7969950718707604,
                    0.036964792852310156
                ],
                [
                    -0.19471364763097498,
                    -0.004118121825734115,
                    0.23546154734077623,
                    -0.006458743438602477,
                    0.7951359776420558,
                    0.8435784210716549,
                    -0.1580668430528682,
                    -0.32852649259664246
                ],
                [
                    -0.3783783236798029,
                    -0.34229758001807925,
                    0.2862293996153483,
                    -0.2643670851112164,
                    -0.261356496515948,
                    -0.7541296944594353,
                    -0.17774241807819663,
                    -0.7466727868251349
                ],
                [
                    0.4687293962971477,
                    -0.15046435909477082,
                    -0.2912626118043475,
                    -0.42586558535050306,
                    -0.38337398741854245,
                    0.07344329094632246,
                    -0.3759739006218318,
                    -0.7670346218370413
                ],
                [
                    0.638459076293681,
                    -0.22192429194587177,
                    -0.0901292457754934,
                    -0.6032076864136827,
                    -0.4068895055490139,
                    0.22841185009022247,
                    -0.1953753420285887,
                    0.06446191489100209
                ],
                [
                    -0.18210980763759765,
                    0.44678522114289415,
                    -0.12466066119965807,
                    0.3863102127317282,
                    -0.47388880662201927,
                    0.018604919970204158,
                    0.5149698652513999,
                    -0.7309671491774
                ]
            ],
            "biases": [
                -0.5572901135629965,
                0.056002183254180916,
                -0.6950965464965561,
                0.7919010553592785,
                -0.6301742200359213,
                -0.5944461621704098,
                0.7463413166208739,
                0.5988495010227849
            ]
        },
        {
            "inputs": [
                0,
                1,
                0,
                0,
                0,
                0,
                1,
                0
            ],
            "outputs": [
                1,
                0,
                1,
                0
            ],
            "weights": [
                [
                    -0.2565842568421494,
                    -0.3854617641936167,
                    0.14034660985828024,
                    -0.5374973000431645
                ],
                [
                    0.42095646539239634,
                    0.16379774210315284,
                    0.34422181937865104,
                    -0.41154459811741756
                ],
                [
                    -0.22278459307672566,
                    -0.24215493057705864,
                    -0.14157806822092184,
                    0.7831392162581403
                ],
                [
                    0.6180188771766957,
                    0.5991281934690653,
                    0.1530573233818007,
                    -0.3515063111981302
                ],
                [
                    0.12551632473768554,
                    -0.17949586506468634,
                    -0.06368770189668232,
                    0.4781007641054168
                ],
                [
                    0.31009982298452016,
                    0.5028954550898332,
                    -0.8830325896189832,
                    -0.5015755175769172
                ],
                [
                    0.3891503698637245,
                    -0.14688135188227452,
                    0.8523451803252201,
                    -0.6671125269133097
                ],
                [
                    -0.23773374234441588,
                    0.7442635447379949,
                    -0.05907434096865753,
                    0.7893823292177801
                ]
            ],
            "biases": [
                0.30459491212554546,
                0.026619315524358422,
                -0.20457856509349187,
                -0.23805419068390402
            ]
        }
    ]
}