{
  "levels": [
    {
      "inputs": [
        0,
        0.4485970522514884,
        0,
        1,
        0,
        1,
        0,
        -1,
        -1
      ],
      "outputs": [
        1,
        0,
        0,
        0,
        0,
        0,
        0,
        0,
        0,
        1,
        1,
        1,
        1,
        1,
        0,
        0
      ],
      "weights": [
        [
          -0.7314873285931225,
          0.32441224396173535,
          -0.13367344973156953,
          0.15490292047883508,
          0.009836487533827251,
          0.11486599556222162,
          0.38752584253794026,
          -0.13334032422365483,
          0.10416065290349204,
          -0.1850813915186212,
          -0.1714809553248554,
          -0.40988908983155115,
          0.07651278775083428,
          -0.28793177918452545,
          0.3056478229409378,
          0.35717866197777953
        ],
        [
          0.41218449918575845,
          0.25091992782285566,
          -0.18933272224832146,
          -0.6603065076424177,
          -0.560636164320786,
          0.024621924770826285,
          -0.2897960998623196,
          -0.035310692741203284,
          0.6647995721912328,
          0.16855079231770234,
          -0.1318395303306351,
          -0.36423602768342994,
          -0.692448305155431,
          0.34676284380920447,
          0.43682435413519133,
          -0.11725296805362548
        ],
        [
          0.41708741030987967,
          0.3101935923620018,
          -0.260044515932851,
          -0.05227639259875974,
          -0.3675192353623105,
          -0.13719167479603564,
          0.3978008369817829,
          -0.2414882292247124,
          0.19591539042663408,
          0.39919878477495635,
          -0.3139780365629221,
          0.19994579771528964,
          -0.39251307149325415,
          -0.5813568112303268,
          0.01814247104137711,
          0.2847880889529386
        ],
        [
          0.35878459309039334,
          -0.25144285678248984,
          0.11424042490572275,
          -0.09268882800575014,
          0.3168164257441615,
          -0.5975519919544169,
          -0.5621018974256113,
          0.26152175625952556,
          -0.33544807873848165,
          -0.006811961597148211,
          0.12919703249539863,
          0.11159366937173357,
          0.5711184478099266,
          0.41568515177636467,
          -0.4019717179652203,
          -0.34369871558225296
        ],
        [
          0.4622294477031912,
          0.5057958387056204,
          0.4431504693232606,
          -0.4810970180641785,
          -0.47543130128223643,
          -0.4795333195662273,
          -0.4148334766542427,
          0.3824502950734774,
          -0.3779931740555131,
          -0.43035490722181313,
          -0.15512864023209105,
          -0.26252763322863115,
          0.6243601377178234,
          0.34186723366630245,
          -0.34579498271843623,
          -0.0359322632179032
        ],
        [
          0.36491734827892114,
          -0.7142786968320657,
          -0.3955310325204714,
          0.3462874278010468,
          0.08044789120845555,
          0.13059891485405362,
          0.11059185323261261,
          -0.08641136831928282,
          0.25984456065731376,
          -0.3083156595277204,
          0.5537209760609609,
          0.35296899591761266,
          -0.2545644366030296,
          0.07197243045673057,
          0.10660443652129431,
          0.35998983197799533
        ],
        [
          0.6093745909191961,
          0.26459404380068585,
          -0.2710760691137814,
          0.15973869482438532,
          -0.5419662963882372,
          -0.03180384416219058,
          -0.323592269404846,
          -0.11970531209826224,
          -0.5838332321096528,
          0.4098113624402344,
          0.016372762958946074,
          -0.043685669441097974,
          0.5115372926016863,
          0.2151378389754217,
          -0.46017736388909924,
          0.5164069680530706
        ],
        [
          0.3347547154369647,
          0.4728791098734189,
          -0.07777947892540599,
          -0.11844042223058499,
          0.14537420057716896,
          0.012287316102858875,
          -0.40896315075732176,
          -0.3502706314005773,
          -0.17282785414793952,
          -0.6610938558598366,
          0.6201446001217799,
          -0.3157530189024617,
          -0.33119892162281384,
          -0.3775886533001123,
          0.24840029564037627,
          0.44283360977733477
        ],
        [
          0.15486747575870166,
          -0.008406937835004093,
          0.33003230639212233,
          0.16243550596546735,
          0.48622156663998106,
          0.01941089725812621,
          -0.027844887309651616,
          0.00450764653552109,
          0.6596873218089702,
          -0.392817673733271,
          -0.4669748131454319,
          -0.0806341336546869,
          -0.2199590503646365,
          -0.01660036492141374,
          0.41473848260843466,
          -0.2642322835267183
        ]
      ],
      "biases": [
        -0.016954237144990673,
        -0.704347240435798,
        0.08130442871672791,
        0.19649044909310995,
        -0.08450299253995637,
        -0.061837406688805885,
        0.33051231440135365,
        0.5072146969476681,
        -0.1950346201963016,
        -0.579920223895228,
        -0.010448409666223294,
        -0.23617027863313503,
        -0.5448864601074969,
        -0.31794931937166004,
        0.41994300813077357,
        0.637700457400584
      ]
    },
    {
      "inputs": [
        1,
        0,
        0,
        0,
        0,
        0,
        0,
        0,
        0,
        1,
        1,
        1,
        1,
        1,
        0,
        0
      ],
      "outputs": [
        0,
        1,
        0,
        1,
        0,
        1,
        0,
        1
      ],
      "weights": [
        [
          -0.3049986065586331,
          0.11364915948822546,
          -0.17815642083200262,
          -0.5424168907427078,
          0.2741714616626459,
          0.20921026663288886,
          -0.13680637575866506,
          0.07013475601460983
        ],
        [
          -0.12365987625724617,
          0.24384786511627332,
          0.40966538099568894,
          -0.235804221824428,
          -0.058481434803472065,
          0.021381386365990136,
          0.3536576641390703,
          -0.1969003824499801
        ],
        [
          0.2010852359219582,
          -0.46576783554475,
          0.16266100525514807,
          -0.518106355596368,
          -0.11157520399189863,
          -0.02318071174898799,
          0.1317700272840015,
          -0.2713040093776437
        ],
        [
          0.25556046791620446,
          0.12662264020928007,
          -0.5095307795885469,
          0.46930078051911633,
          -0.05685601504733761,
          0.17940333969029276,
          -0.38786981099205653,
          0.37156683150661046
        ],
        [
          -0.5929274744935644,
          -0.5173068488474117,
          -0.06728409536866203,
          -0.41916335390787696,
          0.31114009233885775,
          0.4503806557189427,
          -0.23672942109865672,
          0.42749363548986313
        ],
        [
          -0.1576123481372663,
          -0.027989775876013548,
          0.17441420207157413,
          -0.10269349340272108,
          0.3396742462414314,
          -0.45062962358668823,
          -0.2564422998264604,
          -0.3215978088658316
        ],
        [
          0.1969723283964148,
          -0.561552309502844,
          0.3817317946880091,
          -0.251514533878344,
          -0.4539017708087027,
          -0.710442943369655,
          -0.5835106401884805,
          0.04624046311065741
        ],
        [
          0.3910664363433072,
          -0.053352850850091636,
          -0.04656519549880772,
          0.16081043134642797,
          0.1500941495551622,
          -0.05289988982138888,
          -0.5445153715318282,
          -0.4696890246939245
        ],
        [
          0.027342346528402423,
          -0.27962221271095716,
          -0.01305731595792994,
          0.2923528201080213,
          -0.4452925275747779,
          0.1757857985146451,
          0.3408788534461611,
          0.07130242584745322
        ],
        [
          0.6009523095173416,
          -0.1368710885790482,
          -0.4115998058868405,
          -0.33196981209239473,
          0.6395659442719356,
          0.14129689500393489,
          0.3499997282486985,
          0.6245688040607646
        ],
        [
          -0.3814117578209864,
          0.08238733924397035,
          -0.6372993465872512,
          0.1841218777276474,
          -0.5378704925716198,
          0.46050329016426816,
          -0.2930669331886617,
          0.35171939418647574
        ],
        [
          0.07782972055729932,
          0.21827844702761173,
          -0.06376951470083407,
          0.05486001056774775,
          -0.0699164243869318,
          0.67915473102034,
          0.39875217982508193,
          0.13522538072065085
        ],
        [
          -0.1547300534812302,
          -0.38742896874932226,
          -0.09651090289807773,
          0.1878484596404078,
          0.02499171606787398,
          -0.0928096696909711,
          -0.13092191421153695,
          -0.38747648223366526
        ],
        [
          -0.26097996415872876,
          -0.2644339414003583,
          -0.6700502841665181,
          -0.21297160420034372,
          -0.45304335226136644,
          0.22957068102337108,
          -0.15499153928815182,
          -0.015200873185981015
        ],
        [
          -0.27226912996373004,
          -0.15533863880227136,
          -0.6454562436759514,
          0.17879696666249795,
          0.3889154492836967,
          0.28057143989758926,
          0.2670539450567622,
          -0.5187572830670393
        ],
        [
          -0.020721234564500254,
          -0.4367545300589298,
          0.2171730199919162,
          -0.1056345982356819,
          0.41228916880045985,
          -0.47068864774374575,
          -0.1074489808607702,
          -0.5182505843287974
        ]
      ],
      "biases": [
        -0.15352958824811935,
        -0.49508223058038575,
        -0.15990007052079172,
        -0.7266740142580886,
        -0.029416022968028185,
        -0.013422362095074365,
        0.5156678353313565,
        -0.5541425219591282
      ]
    },
    {
      "inputs": [
        0,
        1,
        0,
        1,
        0,
        1,
        0,
        1
      ],
      "outputs": [
        0,
        0,
        1,
        0
      ],
      "weights": [
        [
          0.7518120302815798,
          0.44293702028319776,
          0.39155528365144904,
          0.48499954696429676
        ],
        [
          -0.4710836712698654,
          0.006874382230461289,
          -0.31416117163399665,
          -0.3166824928062957
        ],
        [
          -0.4015633474585208,
          -0.6383811147093139,
          -0.08002898931034795,
          0.4131034216003482
        ],
        [
          -0.13853623834341966,
          -0.46906530193298684,
          0.30738215514178985,
          0.5926295495148379
        ],
        [
          -0.17466516267552018,
          -0.17226021253055648,
          -0.21728604058923512,
          -0.34444829826016593
        ],
        [
          -0.2593801203798411,
          0.5199996399428537,
          0.5617820960645917,
          0.03067909427565101
        ],
        [
          0.06120165969836317,
          0.02943446463045791,
          -0.43165385633089226,
          0.23008626674880722
        ],
        [
          0.3670900329479644,
          -0.7233942958608003,
          0.03624708842732352,
          -0.6646524475553577
        ]
      ],
      "biases": [
        -0.2748614504457177,
        0.6123662538665257,
        0.30603011759629795,
        -0.17355931914928255
      ]
    }
  ]
}